<?xml version="1.0"?>
<opencv_storage>
<cascade>
  <stageType>BOOST</stageType>
  <featureType>HAAR</featureType>
  <height>24</height>
  <width>24</width>
  <stageParams>
    <boostType>GAB</boostType>
    <minHitRate>9.9500000476837158e-01</minHitRate>
    <maxFalseAlarm>5.0000000000000000e-01</maxFalseAlarm>
    <weightTrimRate>9.4999998807907104e-01</weightTrimRate>
    <maxDepth>1</maxDepth>
    <maxWeakCount>100</maxWeakCount></stageParams>
  <featureParams>
    <maxCatCount>0</maxCatCount>
    <featSize>1</featSize>
    <mode>BASIC</mode></featureParams>
  <stageNum>16</stageNum>
  <stages>
    <!-- stage 0 -->
    <_>
      <maxWeakCount>5</maxWeakCount>
      <stageThreshold>-1.7118800878524780e+00</stageThreshold>
      <weakClassifiers>
        <_>
          <internalNodes>
            0 -1 3 3.8555599749088287e-02</internalNodes>
          <leafValues>
            -8.8781434297561646e-01 5.6756758689880371e-01</leafValues></_>
        <_>
          <internalNodes>
            0 -1 80 1.1357163079082966e-02</internalNodes>
          <leafValues>
            -8.2300961017608643e-01 3.3082109689712524e-01</leafValues></_>
        <_>
          <internalNodes>
            0 -1 40 6.7284433171153069e-03</internalNodes>
          <leafValues>
            -7.3579704761505127e-01 3.8841769099235535e-01</leafValues></_>
        <_>
          <internalNodes>
            0 -1 5 -3.2471166923642159e-03</internalNodes>
          <leafValues>
            -8.9297789335250854e-01 3.3362388610839844e-01</leafValues></_>
        <_>
          <internalNodes>
            0 -1 95 -1.4421761734411120e-03</internalNodes>
          <leafValues>
            5.0350409746170044e-01 -5.4726344347000122e-01</leafValues></_></weakClassifiers></_>
    <!-- stage 1 -->
    <_>
      <maxWeakCount>6</maxWeakCount>
      <stageThreshold>-1.8009849786758423e+00</stageThreshold>
      <weakClassifiers>
        <_>
          <internalNodes>
            0 -1 13 8.9861080050468445e-02</internalNodes>
          <leafValues>
            -8.7354087829589844e-01 3.6752137541770935e-01</leafValues></_>
        <_>
          <internalNodes>
            0 -1 23 -5.3073920309543610e-02</internalNodes>
          <leafValues>
            6.4060384035110474e-01 -6.5530836582183838e-01</leafValues></_>
        <_>
          <internalNodes>
            0 -1 36 4.3341745622456074e-03</internalNodes>
          <leafValues>
            -7.7500987052917480e-01 4.2176583409309387e-01</leafValues></_>
        <_>
          <internalNodes>
            0 -1 32 2.1166233345866203e-03</internalNodes>
          <leafValues>
            -4.3135014176368713e-01 6.5445828437805176e-01</leafValues></_>
        <_>
          <internalNodes>
            0 -1 24 1.8132217228412628e-02</internalNodes>
          <leafValues>
            3.0463114380836487e-01 -8.8577747344970703e-01</leafValues></_>
        <_>
          <internalNodes>
            0 -1 91 -4.4918257743120193e-02</internalNodes>
          <leafValues>
            6.2959313392639160e-01 -4.3850803375244141e-01</leafValues></_></weakClassifiers></_>
    <!-- stage 2 -->
    <_>
      <maxWeakCount>5</maxWeakCount>
      <stageThreshold>-1.6521701812744141e+00</stageThreshold>
      <weakClassifiers>
        <_>
          <internalNodes>
            0 -1 26 4.1988112032413483e-02</internalNodes>
          <leafValues>
            -8.8821136951446533e-01 1.1801242083311081e-01</leafValues></_>
        <_>
          <internalNodes>
            0 -1 17 -8.7061375379562378e-02</internalNodes>
          <leafValues>
            7.0154851675033569e-01 -6.3471782207489014e-01</leafValues></_>
        <_>
          <internalNodes>
            0 -1 46 8.9004784822463989e-03</internalNodes>
          <leafValues>
            -6.0962599515914917e-01 4.9959138035774231e-01</leafValues></_>
        <_>
          <internalNodes>
            0 -1 50 -1.6537666320800781e-02</internalNodes>
          <leafValues>
            -9.4925928115844727e-01 2.5981348752975464e-01</leafValues></_>
        <_>
          <internalNodes>
            0 -1 38 -5.4874219931662083e-03</internalNodes>
          <leafValues>
            -9.5071929693222046e-01 2.2057153284549713e-01</leafValues></_></weakClassifiers></_>
    <!-- stage 3 -->
    <_>
      <maxWeakCount>5</maxWeakCount>
      <stageThreshold>-1.7411135435104370e+00</stageThreshold>
      <weakClassifiers>
        <_>
          <internalNodes>
            0 -1 6 3.3899001777172089e-02</internalNodes>
          <leafValues>
            -8.7229859828948975e-01 2.5984251499176025e-01</leafValues></_>
        <_>
          <internalNodes>
            0 -1 31 -7.2082350961863995e-03</internalNodes>
          <leafValues>
            2.9073518514633179e-01 -8.3009159564971924e-01</leafValues></_>
        <_>
          <internalNodes>
            0 -1 78 -1.9370482768863440e-03</internalNodes>
          <leafValues>
            4.8996055126190186e-01 -5.4417377710342407e-01</leafValues></_>
        <_>
          <internalNodes>
            0 -1 29 9.9003389477729797e-03</internalNodes>
          <leafValues>
            2.5346913933753967e-01 -9.4949322938919067e-01</leafValues></_>
        <_>
          <internalNodes>
            0 -1 60 -1.6701389104127884e-02</internalNodes>
          <leafValues>
            -8.8842058181762695e-01 2.5198128819465637e-01</leafValues></_></weakClassifiers></_>
    <!-- stage 4 -->
    <_>
      <maxWeakCount>7</maxWeakCount>
      <stageThreshold>-2.1645145416259766e+00</stageThreshold>
      <weakClassifiers>
        <_>
          <internalNodes>
            0 -1 73 2.1041622385382652e-03</internalNodes>
          <leafValues>
            -8.8595563173294067e-01 -8.0808080732822418e-02</leafValues></_>
        <_>
          <internalNodes>
            0 -1 9 2.7401102706789970e-02</internalNodes>
          <leafValues>
            -7.1531820297241211e-01 3.1155380606651306e-01</leafValues></_>
        <_>
          <internalNodes>
            0 -1 65 -4.3671089224517345e-03</internalNodes>
          <leafValues>
            3.3798947930335999e-01 -8.0077838897705078e-01</leafValues></_>
        <_>
          <internalNodes>
            0 -1 45 -1.5034989453852177e-02</internalNodes>
          <leafValues>
            5.0367712974548340e-01 -5.2616202831268311e-01</leafValues></_>
        <_>
          <internalNodes>
            0 -1 34 1.2029711902141571e-01</internalNodes>
          <leafValues>
            -3.4898945689201355e-01 7.1013218164443970e-01</leafValues></_>
        <_>
          <internalNodes>
            0 -1 72 -7.2481967508792877e-03</internalNodes>
          <leafValues>
            4.6370998024940491e-01 -6.9980627298355103e-01</leafValues></_>
        <_>
          <internalNodes>
            0 -1 94 -8.9067891240119934e-03</internalNodes>
          <leafValues>
            6.4897930622100830e-01 -3.9364653825759888e-01</leafValues></_></weakClassifiers></_>
    <!-- stage 5 -->
    <_>
      <maxWeakCount>5</maxWeakCount>
      <stageThreshold>-1.6173524856567383e+00</stageThreshold>
      <weakClassifiers>
        <_>
          <internalNodes>
            0 -1 84 4.2821280658245087e-02</internalNodes>
          <leafValues>
            -8.4084373712539673e-01 2.1568627655506134e-01</leafValues></_>
        <_>
          <internalNodes>
            0 -1 92 -4.6803899109363556e-02</internalNodes>
          <leafValues>
            3.9117991924285889e-01 -6.0722571611404419e-01</leafValues></_>
        <_>
          <internalNodes>
            0 -1 47 2.3513850755989552e-03</internalNodes>
          <leafValues>
            -5.5977994203567505e-01 4.1960930824279785e-01</leafValues></_>
        <_>
          <internalNodes>
            0 -1 101 -4.8265213263221085e-04</internalNodes>
          <leafValues>
            -9.2180448770523071e-01 2.1131387352943420e-01</leafValues></_>
        <_>
          <internalNodes>
            0 -1 75 6.5524610690772533e-03</internalNodes>
          <leafValues>
            1.7918297648429871e-01 -9.6101140975952148e-01</leafValues></_></weakClassifiers></_>
    <!-- stage 6 -->
    <_>
      <maxWeakCount>5</maxWeakCount>
      <stageThreshold>-1.5285285711288452e+00</stageThreshold>
      <weakClassifiers>
        <_>
          <internalNodes>
            0 -1 96 -8.8197082281112671e-02</internalNodes>
          <leafValues>
            5.3333336114883423e-01 -8.1751149892807007e-01</leafValues></_>
        <_>
          <internalNodes>
            0 -1 57 2.1596841179416515e-05</internalNodes>
          <leafValues>
            -7.5271379947662354e-01 2.1396747231483459e-01</leafValues></_>
        <_>
          <internalNodes>
            0 -1 55 7.4311303906142712e-03</internalNodes>
          <leafValues>
            2.1966478228569031e-01 -9.3575876951217651e-01</leafValues></_>
        <_>
          <internalNodes>
            0 -1 42 9.8005861043930054e-02</internalNodes>
          <leafValues>
            -3.7448868155479431e-01 6.4818775653839111e-01</leafValues></_>
        <_>
          <internalNodes>
            0 -1 15 -3.3526349579915404e-04</internalNodes>
          <leafValues>
            3.8526290655136108e-01 -7.4102962017059326e-01</leafValues></_></weakClassifiers></_>
    <!-- stage 7 -->
    <_>
      <maxWeakCount>6</maxWeakCount>
      <stageThreshold>-2.1515123844146729e+00</stageThreshold>
      <weakClassifiers>
        <_>
          <internalNodes>
            0 -1 61 -7.7900350093841553e-02</internalNodes>
          <leafValues>
            3.4883719682693481e-01 -8.3569407463073730e-01</leafValues></_>
        <_>
          <internalNodes>
            0 -1 67 -2.5884800124913454e-03</internalNodes>
          <leafValues>
            3.7344598770141602e-01 -6.6774785518646240e-01</leafValues></_>
        <_>
          <internalNodes>
            0 -1 52 -1.7873857170343399e-02</internalNodes>
          <leafValues>
            -8.8065910339355469e-01 2.3006658256053925e-01</leafValues></_>
        <_>
          <internalNodes>
            0 -1 18 1.8141755461692810e-01</internalNodes>
          <leafValues>
            -4.3047222495079041e-01 5.7008254528045654e-01</leafValues></_>
        <_>
          <internalNodes>
            0 -1 64 -2.3915294150356203e-05</internalNodes>
          <leafValues>
            4.0632987022399902e-01 -6.6724014282226563e-01</leafValues></_>
        <_>
          <internalNodes>
            0 -1 44 -7.9551152884960175e-03</internalNodes>
          <leafValues>
            -9.5007067918777466e-01 2.1957524120807648e-01</leafValues></_></weakClassifiers></_>
    <!-- stage 8 -->
    <_>
      <maxWeakCount>7</maxWeakCount>
      <stageThreshold>-2.0093684196472168e+00</stageThreshold>
      <weakClassifiers>
        <_>
          <internalNodes>
            0 -1 1 -1.5792580321431160e-02</internalNodes>
          <leafValues>
            2.8000000119209290e-01 -8.1869161128997803e-01</leafValues></_>
        <_>
          <internalNodes>
            0 -1 56 -1.9773994572460651e-03</internalNodes>
          <leafValues>
            1.6787490248680115e-01 -8.7132990360260010e-01</leafValues></_>
        <_>
          <internalNodes>
            0 -1 39 -1.5457704430446029e-03</internalNodes>
          <leafValues>
            3.8791564106941223e-01 -6.1456435918807983e-01</leafValues></_>
        <_>
          <internalNodes>
            0 -1 43 5.6792749091982841e-03</internalNodes>
          <leafValues>
            1.8515405058860779e-01 -9.7230565547943115e-01</leafValues></_>
        <_>
          <internalNodes>
            0 -1 93 -2.8324279934167862e-02</internalNodes>
          <leafValues>
            5.7776230573654175e-01 -3.7902399897575378e-01</leafValues></_>
        <_>
          <internalNodes>
            0 -1 99 2.4891949724406004e-03</internalNodes>
          <leafValues>
            2.8540259599685669e-01 -7.3414057493209839e-01</leafValues></_>
        <_>
          <internalNodes>
            0 -1 79 6.5153473988175392e-03</internalNodes>
          <leafValues>
            2.2074797749519348e-01 -9.1308420896530151e-01</leafValues></_></weakClassifiers></_>
    <!-- stage 9 -->
    <_>
      <maxWeakCount>8</maxWeakCount>
      <stageThreshold>-1.9053446054458618e+00</stageThreshold>
      <weakClassifiers>
        <_>
          <internalNodes>
            0 -1 2 -2.0860265940427780e-02</internalNodes>
          <leafValues>
            3.2394367456436157e-01 -8.1750464439392090e-01</leafValues></_>
        <_>
          <internalNodes>
            0 -1 83 1.8003328004851937e-03</internalNodes>
          <leafValues>
            -6.1332553625106812e-01 3.9732819795608521e-01</leafValues></_>
        <_>
          <internalNodes>
            0 -1 76 3.8436796516180038e-02</internalNodes>
          <leafValues>
            -5.2511584758758545e-01 4.7249898314476013e-01</leafValues></_>
        <_>
          <internalNodes>
            0 -1 97 4.5641092583537102e-03</internalNodes>
          <leafValues>
            -3.4726995229721069e-01 6.3552576303482056e-01</leafValues></_>
        <_>
          <internalNodes>
            0 -1 59 -1.0466396342962980e-03</internalNodes>
          <leafValues>
            3.5204482078552246e-01 -6.3235193490982056e-01</leafValues></_>
        <_>
          <internalNodes>
            0 -1 35 7.4019365012645721e-02</internalNodes>
          <leafValues>
            -3.8012745976448059e-01 5.9061849117279053e-01</leafValues></_>
        <_>
          <internalNodes>
            0 -1 19 2.0919064991176128e-04</internalNodes>
          <leafValues>
            -5.9510016441345215e-01 3.2051590085029602e-01</leafValues></_>
        <_>
          <internalNodes>
            0 -1 66 -1.2370021082460880e-02</internalNodes>
          <leafValues>
            -8.6530774831771851e-01 2.3736315965652466e-01</leafValues></_></weakClassifiers></_>
    <!-- stage 10 -->
    <_>
      <maxWeakCount>6</maxWeakCount>
      <stageThreshold>-1.6419985294342041e+00</stageThreshold>
      <weakClassifiers>
        <_>
          <internalNodes>
            0 -1 4 5.9580951929092407e-02</internalNodes>
          <leafValues>
            -8.5425102710723877e-01 -7.0063695311546326e-02</leafValues></_>
        <_>
          <internalNodes>
            0 -1 85 1.9292029901407659e-04</internalNodes>
          <leafValues>
            -7.3664909601211548e-01 1.4722277224063873e-01</leafValues></_>
        <_>
          <internalNodes>
            0 -1 58 -4.0185003308579326e-04</internalNodes>
          <leafValues>
            3.8348740339279175e-01 -5.3335756063461304e-01</leafValues></_>
        <_>
          <internalNodes>
            0 -1 86 5.7643576292321086e-04</internalNodes>
          <leafValues>
            -4.1092300415039063e-01 4.7541227936744690e-01</leafValues></_>
        <_>
          <internalNodes>
            0 -1 22 -7.6217666268348694e-02</internalNodes>
          <leafValues>
            4.4747281074523926e-01 -4.4473245739936829e-01</leafValues></_>
        <_>
          <internalNodes>
            0 -1 82 3.7524866638705134e-04</internalNodes>
          <leafValues>
            -3.3014455437660217e-01 5.5000084638595581e-01</leafValues></_></weakClassifiers></_>
    <!-- stage 11 -->
    <_>
      <maxWeakCount>6</maxWeakCount>
      <stageThreshold>-1.7219141721725464e+00</stageThreshold>
      <weakClassifiers>
        <_>
          <internalNodes>
            0 -1 98 -3.3098451793193817e-02</internalNodes>
          <leafValues>
            -8.4033617749810219e-03 -8.3235865831375122e-01</leafValues></_>
        <_>
          <internalNodes>
            0 -1 100 4.9812206998467445e-04</internalNodes>
          <leafValues>
            -2.9657684266567230e-02 -8.7336474657058716e-01</leafValues></_>
        <_>
          <internalNodes>
            0 -1 12 1.2071735691279173e-03</internalNodes>
          <leafValues>
            -8.0851989984512329e-01 1.6167153418064117e-01</leafValues></_>
        <_>
          <internalNodes>
            0 -1 77 9.1420445824041963e-04</internalNodes>
          <leafValues>
            -6.0805666446685791e-01 2.8988397121429443e-01</leafValues></_>
        <_>
          <internalNodes>
            0 -1 51 -2.2177605424076319e-03</internalNodes>
          <leafValues>
            -8.9347720146179199e-01 2.1798279881477356e-01</leafValues></_>
        <_>
          <internalNodes>
            0 -1 48 1.2163207866251469e-03</internalNodes>
          <leafValues>
            -5.1824897527694702e-01 3.3869594335556030e-01</leafValues></_></weakClassifiers></_>
    <!-- stage 12 -->
    <_>
      <maxWeakCount>7</maxWeakCount>
      <stageThreshold>-1.6403242349624634e+00</stageThreshold>
      <weakClassifiers>
        <_>
          <internalNodes>
            0 -1 69 2.0298816263675690e-02</internalNodes>
          <leafValues>
            -8.2499998807907104e-01 2.8571428731083870e-02</leafValues></_>
        <_>
          <internalNodes>
            0 -1 27 -2.4270210415124893e-03</internalNodes>
          <leafValues>
            5.3382523357868195e-02 -7.8201347589492798e-01</leafValues></_>
        <_>
          <internalNodes>
            0 -1 8 2.6084402576088905e-02</internalNodes>
          <leafValues>
            -4.7560280561447144e-01 3.9108517765998840e-01</leafValues></_>
        <_>
          <internalNodes>
            0 -1 41 3.6462019197642803e-03</internalNodes>
          <leafValues>
            2.2877557575702667e-01 -7.4928873777389526e-01</leafValues></_>
        <_>
          <internalNodes>
            0 -1 49 -3.1621344387531281e-03</internalNodes>
          <leafValues>
            -7.4552279710769653e-01 2.5788262486457825e-01</leafValues></_>
        <_>
          <internalNodes>
            0 -1 71 -1.5654214657843113e-03</internalNodes>
          <leafValues>
            4.7590526938438416e-01 -3.6987829208374023e-01</leafValues></_>
        <_>
          <internalNodes>
            0 -1 0 1.0506834089756012e-01</internalNodes>
          <leafValues>
            -3.6004993319511414e-01 5.1171523332595825e-01</leafValues></_></weakClassifiers></_>
    <!-- stage 13 -->
    <_>
      <maxWeakCount>9</maxWeakCount>
      <stageThreshold>-1.5682129859924316e+00</stageThreshold>
      <weakClassifiers>
        <_>
          <internalNodes>
            0 -1 88 -3.2920693047344685e-03</internalNodes>
          <leafValues>
            -2.6956522464752197e-01 -8.6666667461395264e-01</leafValues></_>
        <_>
          <internalNodes>
            0 -1 89 -1.9198525696992874e-02</internalNodes>
          <leafValues>
            1.4637687802314758e-01 -6.1175411939620972e-01</leafValues></_>
        <_>
          <internalNodes>
            0 -1 81 1.0739752324298024e-03</internalNodes>
          <leafValues>
            -4.2193171381950378e-01 4.1804876923561096e-01</leafValues></_>
        <_>
          <internalNodes>
            0 -1 30 -1.7646189080551267e-03</internalNodes>
          <leafValues>
            -8.8687771558761597e-01 2.0170870423316956e-01</leafValues></_>
        <_>
          <internalNodes>
            0 -1 7 -9.9306898191571236e-03</internalNodes>
          <leafValues>
            5.9735363721847534e-01 -2.9556050896644592e-01</leafValues></_>
        <_>
          <internalNodes>
            0 -1 21 7.8987479209899902e-03</internalNodes>
          <leafValues>
            2.7240049839019775e-01 -6.2510263919830322e-01</leafValues></_>
        <_>
          <internalNodes>
            0 -1 90 -5.2439253777265549e-03</internalNodes>
          <leafValues>
            5.7422989606857300e-01 -2.9673382639884949e-01</leafValues></_>
        <_>
          <internalNodes>
            0 -1 11 -1.3482859358191490e-03</internalNodes>
          <leafValues>
            -1. 1.9112367928028107e-01</leafValues></_>
        <_>
          <internalNodes>
            0 -1 16 -2.0106532610952854e-03</internalNodes>
          <leafValues>
            5.9007120132446289e-01 -3.3790054917335510e-01</leafValues></_></weakClassifiers></_>
    <!-- stage 14 -->
    <_>
      <maxWeakCount>7</maxWeakCount>
      <stageThreshold>-1.7304750680923462e+00</stageThreshold>
      <weakClassifiers>
        <_>
          <internalNodes>
            0 -1 14 -1.7512533813714981e-03</internalNodes>
          <leafValues>
            -2.0496894419193268e-01 -8.3536583185195923e-01</leafValues></_>
        <_>
          <internalNodes>
            0 -1 25 -5.3035747259855270e-04</internalNodes>
          <leafValues>
            1.0291875898838043e-01 -6.8172365427017212e-01</leafValues></_>
        <_>
          <internalNodes>
            0 -1 62 -5.4398577049141750e-05</internalNodes>
          <leafValues>
            2.2438308596611023e-01 -6.6464054584503174e-01</leafValues></_>
        <_>
          <internalNodes>
            0 -1 37 7.3800317477434874e-04</internalNodes>
          <leafValues>
            -7.0407146215438843e-01 2.2771857678890228e-01</leafValues></_>
        <_>
          <internalNodes>
            0 -1 68 -6.3092363998293877e-03</internalNodes>
          <leafValues>
            -9.0259289741516113e-01 1.8847055733203888e-01</leafValues></_>
        <_>
          <internalNodes>
            0 -1 53 1.1884322389960289e-02</internalNodes>
          <leafValues>
            1.5380063652992249e-01 -8.5970425605773926e-01</leafValues></_>
        <_>
          <internalNodes>
            0 -1 20 -1.4112710952758789e-02</internalNodes>
          <leafValues>
            1.8265835940837860e-01 -7.9708671569824219e-01</leafValues></_></weakClassifiers></_>
    <!-- stage 15 -->
    <_>
      <maxWeakCount>8</maxWeakCount>
      <stageThreshold>-1.8665987253189087e+00</stageThreshold>
      <weakClassifiers>
        <_>
          <internalNodes>
            0 -1 87 3.8481380324810743e-03</internalNodes>
          <leafValues>
            -8.6289447546005249e-01 -2.7433627843856812e-01</leafValues></_>
        <_>
          <internalNodes>
            0 -1 70 -3.2648658379912376e-03</internalNodes>
          <leafValues>
            4.9335312098264694e-02 -7.1098291873931885e-01</leafValues></_>
        <_>
          <internalNodes>
            0 -1 33 -7.3123633861541748e-02</internalNodes>
          <leafValues>
            4.7866767644882202e-01 -3.2460558414459229e-01</leafValues></_>
        <_>
          <internalNodes>
            0 -1 28 -3.5394933074712753e-03</internalNodes>
          <leafValues>
            3.1449383497238159e-01 -5.2106583118438721e-01</leafValues></_>
        <_>
          <internalNodes>
            0 -1 63 1.1974354088306427e-01</internalNodes>
          <leafValues>
            -3.2137414813041687e-01 5.4581379890441895e-01</leafValues></_>
        <_>
          <internalNodes>
            0 -1 74 5.6812155526131392e-04</internalNodes>
          <leafValues>
            -3.8119927048683167e-01 4.6719324588775635e-01</leafValues></_>
        <_>
          <internalNodes>
            0 -1 10 -1.6025018412619829e-03</internalNodes>
          <leafValues>
            -7.8087842464447021e-01 2.4167159199714661e-01</leafValues></_>
        <_>
          <internalNodes>
            0 -1 54 9.3662608414888382e-03</internalNodes>
          <leafValues>
            1.6545940935611725e-01 -9.4766783714294434e-01</leafValues></_></weakClassifiers></_></stages>
  <features>
    <_>
      <rects>
        <_>
          0 0 12 12 -1.</_>
        <_>
          0 6 12 6 2.</_></rects>
      <tilted>0</tilted></_>
    <_>
      <rects>
        <_>
          0 5 3 6 -1.</_>
        <_>
          1 5 1 6 3.</_></rects>
      <tilted>0</tilted></_>
    <_>
      <rects>
        <_>
          0 6 3 8 -1.</_>
        <_>
          1 6 1 8 3.</_></rects>
      <tilted>0</tilted></_>
    <_>
      <rects>
        <_>
          0 6 4 16 -1.</_>
        <_>
          2 6 2 16 2.</_></rects>
      <tilted>0</tilted></_>
    <_>
      <rects>
        <_>
          0 6 4 17 -1.</_>
        <_>
          2 6 2 17 2.</_></rects>
      <tilted>0</tilted></_>
    <_>
      <rects>
        <_>
          0 6 17 15 -1.</_>
        <_>
          0 11 17 5 3.</_></rects>
      <tilted>0</tilted></_>
    <_>
      <rects>
        <_>
          0 9 4 9 -1.</_>
        <_>
          2 9 2 9 2.</_></rects>
      <tilted>0</tilted></_>
    <_>
      <rects>
        <_>
          0 10 3 8 -1.</_>
        <_>
          1 10 1 8 3.</_></rects>
      <tilted>0</tilted></_>
    <_>
      <rects>
        <_>
          0 12 6 6 -1.</_>
        <_>
          3 12 3 6 2.</_></rects>
      <tilted>0</tilted></_>
    <_>
      <rects>
        <_>
          0 12 6 8 -1.</_>
        <_>
          3 12 3 8 2.</_></rects>
      <tilted>0</tilted></_>
    <_>
      <rects>
        <_>
          1 7 2 6 -1.</_>
        <_>
          1 9 2 2 3.</_></rects>
      <tilted>0</tilted></_>
    <_>
      <rects>
        <_>
          1 10 4 2 -1.</_>
        <_>
          1 11 4 1 2.</_></rects>
      <tilted>0</tilted></_>
    <_>
      <rects>
        <_>
          1 13 18 1 -1.</_>
        <_>
          7 13 6 1 3.</_></rects>
      <tilted>0</tilted></_>
    <_>
      <rects>
        <_>
          2 1 14 6 -1.</_>
        <_>
          2 4 14 3 2.</_></rects>
      <tilted>0</tilted></_>
    <_>
      <rects>
        <_>
          2 9 2 2 -1.</_>
        <_>
          3 9 1 2 2.</_></rects>
      <tilted>0</tilted></_>
    <_>
      <rects>
        <_>
          2 11 2 6 -1.</_>
        <_>
          2 14 2 3 2.</_></rects>
      <tilted>0</tilted></_>
    <_>
      <rects>
        <_>
          2 16 3 2 -1.</_>
        <_>
          3 16 1 2 3.</_></rects>
      <tilted>0</tilted></_>
    <_>
      <rects>
        <_>
          2 18 14 6 -1.</_>
        <_>
          2 21 14 3 2.</_></rects>
      <tilted>0</tilted></_>
    <_>
      <rects>
        <_>
          3 0 16 10 -1.</_>
        <_>
          3 5 16 5 2.</_></rects>
      <tilted>0</tilted></_>
    <_>
      <rects>
        <_>
          3 7 4 8 -1.</_>
        <_>
          3 7 2 4 2.</_>
        <_>
          5 11 2 4 2.</_></rects>
      <tilted>0</tilted></_>
    <_>
      <rects>
        <_>
          3 9 9 12 -1.</_>
        <_>
          3 15 9 6 2.</_></rects>
      <tilted>0</tilted></_>
    <_>
      <rects>
        <_>
          3 11 18 2 -1.</_>
        <_>
          9 11 6 2 3.</_></rects>
      <tilted>0</tilted></_>
    <_>
      <rects>
        <_>
          3 16 18 8 -1.</_>
        <_>
          3 20 18 4 2.</_></rects>
      <tilted>0</tilted></_>
    <_>
      <rects>
        <_>
          3 20 18 4 -1.</_>
        <_>
          3 22 18 2 2.</_></rects>
      <tilted>0</tilted></_>
    <_>
      <rects>
        <_>
          4 1 18 20 -1.</_>
        <_>
          4 1 9 10 2.</_>
        <_>
          13 11 9 10 2.</_></rects>
      <tilted>0</tilted></_>
    <_>
      <rects>
        <_>
          4 2 4 16 -1.</_>
        <_>
          4 2 2 8 2.</_>
        <_>
          6 10 2 8 2.</_></rects>
      <tilted>0</tilted></_>
    <_>
      <rects>
        <_>
          4 3 14 6 -1.</_>
        <_>
          4 5 14 2 3.</_></rects>
      <tilted>0</tilted></_>
    <_>
      <rects>
        <_>
          4 7 6 7 -1.</_>
        <_>
          6 7 2 7 3.</_></rects>
      <tilted>0</tilted></_>
    <_>
      <rects>
        <_>
          4 9 6 12 -1.</_>
        <_>
          6 9 2 12 3.</_></rects>
      <tilted>0</tilted></_>
    <_>
      <rects>
        <_>
          4 10 16 10 -1.</_>
        <_>
          12 10 8 10 2.</_></rects>
      <tilted>0</tilted></_>
    <_>
      <rects>
        <_>
          4 11 4 3 -1.</_>
        <_>
          6 11 2 3 2.</_></rects>
      <tilted>0</tilted></_>
    <_>
      <rects>
        <_>
          4 13 8 4 -1.</_>
        <_>
          4 15 8 2 2.</_></rects>
      <tilted>0</tilted></_>
    <_>
      <rects>
        <_>
          4 15 3 3 -1.</_>
        <_>
          5 15 1 3 3.</_></rects>
      <tilted>0</tilted></_>
    <_>
      <rects>
        <_>
          4 18 10 6 -1.</_>
        <_>
          4 21 10 3 2.</_></rects>
      <tilted>0</tilted></_>
    <_>
      <rects>
        <_>
          5 0 12 10 -1.</_>
        <_>
          5 5 12 5 2.</_></rects>
      <tilted>0</tilted></_>
    <_>
      <rects>
        <_>
          5 0 18 6 -1.</_>
        <_>
          5 3 18 3 2.</_></rects>
      <tilted>0</tilted></_>
    <_>
      <rects>
        <_>
          5 7 9 4 -1.</_>
        <_>
          8 7 3 4 3.</_></rects>
      <tilted>0</tilted></_>
    <_>
      <rects>
        <_>
          5 9 12 10 -1.</_>
        <_>
          9 9 4 10 3.</_></rects>
      <tilted>0</tilted></_>
    <_>
      <rects>
        <_>
          5 11 6 12 -1.</_>
        <_>
          8 11 3 12 2.</_></rects>
      <tilted>0</tilted></_>
    <_>
      <rects>
        <_>
          5 14 3 4 -1.</_>
        <_>
          6 14 1 4 3.</_></rects>
      <tilted>0</tilted></_>
    <_>
      <rects>
        <_>
          5 14 9 6 -1.</_>
        <_>
          8 14 3 6 3.</_></rects>
      <tilted>0</tilted></_>
    <_>
      <rects>
        <_>
          6 0 9 4 -1.</_>
        <_>
          9 0 3 4 3.</_></rects>
      <tilted>0</tilted></_>
    <_>
      <rects>
        <_>
          6 1 15 6 -1.</_>
        <_>
          6 4 15 3 2.</_></rects>
      <tilted>0</tilted></_>
    <_>
      <rects>
        <_>
          6 4 6 3 -1.</_>
        <_>
          9 4 3 3 2.</_></rects>
      <tilted>0</tilted></_>
    <_>
      <rects>
        <_>
          6 6 8 5 -1.</_>
        <_>
          10 6 4 5 2.</_></rects>
      <tilted>0</tilted></_>
    <_>
      <rects>
        <_>
          6 6 14 6 -1.</_>
        <_>
          6 8 14 2 3.</_></rects>
      <tilted>0</tilted></_>
    <_>
      <rects>
        <_>
          6 9 2 9 -1.</_>
        <_>
          6 12 2 3 3.</_></rects>
      <tilted>0</tilted></_>
    <_>
      <rects>
        <_>
          6 11 12 2 -1.</_>
        <_>
          6 12 12 1 2.</_></rects>
      <tilted>0</tilted></_>
    <_>
      <rects>
        <_>
          6 12 4 6 -1.</_>
        <_>
          6 12 2 3 2.</_>
        <_>
          8 15 2 3 2.</_></rects>
      <tilted>0</tilted></_>
    <_>
      <rects>
        <_>
          7 0 6 7 -1.</_>
        <_>
          9 0 2 7 3.</_></rects>
      <tilted>0</tilted></_>
    <_>
      <rects>
        <_>
          7 4 14 10 -1.</_>
        <_>
          7 4 7 5 2.</_>
        <_>
          14 9 7 5 2.</_></rects>
      <tilted>0</tilted></_>
    <_>
      <rects>
        <_>
          7 5 9 1 -1.</_>
        <_>
          10 5 3 1 3.</_></rects>
      <tilted>0</tilted></_>
    <_>
      <rects>
        <_>
          7 5 12 5 -1.</_>
        <_>
          13 5 6 5 2.</_></rects>
      <tilted>0</tilted></_>
    <_>
      <rects>
        <_>
          7 6 8 14 -1.</_>
        <_>
          7 6 4 7 2.</_>
        <_>
          11 13 4 7 2.</_></rects>
      <tilted>0</tilted></_>
    <_>
      <rects>
        <_>
          7 19 12 4 -1.</_>
        <_>
          11 19 4 4 3.</_></rects>
      <tilted>0</tilted></_>
    <_>
      <rects>
        <_>
          8 3 9 20 -1.</_>
        <_>
          11 3 3 20 3.</_></rects>
      <tilted>0</tilted></_>
    <_>
      <rects>
        <_>
          8 6 6 5 -1.</_>
        <_>
          11 6 3 5 2.</_></rects>
      <tilted>0</tilted></_>
    <_>
      <rects>
        <_>
          8 10 1 2 -1.</_>
        <_>
          8 11 1 1 2.</_></rects>
      <tilted>0</tilted></_>
    <_>
      <rects>
        <_>
          9 7 2 4 -1.</_>
        <_>
          10 7 1 4 2.</_></rects>
      <tilted>0</tilted></_>
    <_>
      <rects>
        <_>
          9 9 6 2 -1.</_>
        <_>
          12 9 3 2 2.</_></rects>
      <tilted>0</tilted></_>
    <_>
      <rects>
        <_>
          9 13 8 6 -1.</_>
        <_>
          13 13 4 6 2.</_></rects>
      <tilted>0</tilted></_>
    <_>
      <rects>
        <_>
          9 20 13 4 -1.</_>
        <_>
          9 22 13 2 2.</_></rects>
      <tilted>0</tilted></_>
    <_>
      <rects>
        <_>
          10 0 2 10 -1.</_>
        <_>
          10 0 1 5 2.</_>
        <_>
          11 5 1 5 2.</_></rects>
      <tilted>0</tilted></_>
    <_>
      <rects>
        <_>
          10 0 13 10 -1.</_>
        <_>
          10 5 13 5 2.</_></rects>
      <tilted>0</tilted></_>
    <_>
      <rects>
        <_>
          10 6 2 4 -1.</_>
        <_>
          11 6 1 4 2.</_></rects>
      <tilted>0</tilted></_>
    <_>
      <rects>
        <_>
          10 8 9 8 -1.</_>
        <_>
          13 8 3 8 3.</_></rects>
      <tilted>0</tilted></_>
    <_>
      <rects>
        <_>
          10 10 6 14 -1.</_>
        <_>
          12 10 2 14 3.</_></rects>
      <tilted>0</tilted></_>
    <_>
      <rects>
        <_>
          10 14 3 3 -1.</_>
        <_>
          11 14 1 3 3.</_></rects>
      <tilted>0</tilted></_>
    <_>
      <rects>
        <_>
          10 14 9 2 -1.</_>
        <_>
          13 14 3 2 3.</_></rects>
      <tilted>0</tilted></_>
    <_>
      <rects>
        <_>
          10 20 9 3 -1.</_>
        <_>
          10 21 9 1 3.</_></rects>
      <tilted>0</tilted></_>
    <_>
      <rects>
        <_>
          11 6 7 6 -1.</_>
        <_>
          11 8 7 2 3.</_></rects>
      <tilted>0</tilted></_>
    <_>
      <rects>
        <_>
          11 9 3 3 -1.</_>
        <_>
          12 9 1 3 3.</_></rects>
      <tilted>0</tilted></_>
    <_>
      <rects>
        <_>
          11 9 4 12 -1.</_>
        <_>
          11 15 4 6 2.</_></rects>
      <tilted>0</tilted></_>
    <_>
      <rects>
        <_>
          11 13 2 5 -1.</_>
        <_>
          12 13 1 5 2.</_></rects>
      <tilted>0</tilted></_>
    <_>
      <rects>
        <_>
          12 7 2 5 -1.</_>
        <_>
          13 7 1 5 2.</_></rects>
      <tilted>0</tilted></_>
    <_>
      <rects>
        <_>
          12 11 6 6 -1.</_>
        <_>
          15 11 3 6 2.</_></rects>
      <tilted>0</tilted></_>
    <_>
      <rects>
        <_>
          12 11 12 13 -1.</_>
        <_>
          16 11 4 13 3.</_></rects>
      <tilted>0</tilted></_>
    <_>
      <rects>
        <_>
          13 8 6 7 -1.</_>
        <_>
          16 8 3 7 2.</_></rects>
      <tilted>0</tilted></_>
    <_>
      <rects>
        <_>
          13 14 3 4 -1.</_>
        <_>
          14 14 1 4 3.</_></rects>
      <tilted>0</tilted></_>
    <_>
      <rects>
        <_>
          13 21 9 3 -1.</_>
        <_>
          16 21 3 3 3.</_></rects>
      <tilted>0</tilted></_>
    <_>
      <rects>
        <_>
          14 10 9 5 -1.</_>
        <_>
          17 10 3 5 3.</_></rects>
      <tilted>0</tilted></_>
    <_>
      <rects>
        <_>
          14 12 2 4 -1.</_>
        <_>
          14 12 1 2 2.</_>
        <_>
          15 14 1 2 2.</_></rects>
      <tilted>0</tilted></_>
    <_>
      <rects>
        <_>
          14 14 2 2 -1.</_>
        <_>
          14 14 1 1 2.</_>
        <_>
          15 15 1 1 2.</_></rects>
      <tilted>0</tilted></_>
    <_>
      <rects>
        <_>
          14 14 3 3 -1.</_>
        <_>
          15 14 1 3 3.</_></rects>
      <tilted>0</tilted></_>
    <_>
      <rects>
        <_>
          14 18 6 6 -1.</_>
        <_>
          14 20 6 2 3.</_></rects>
      <tilted>0</tilted></_>
    <_>
      <rects>
        <_>
          15 10 6 2 -1.</_>
        <_>
          15 11 6 1 2.</_></rects>
      <tilted>0</tilted></_>
    <_>
      <rects>
        <_>
          15 13 1 3 -1.</_>
        <_>
          15 14 1 1 3.</_></rects>
      <tilted>0</tilted></_>
    <_>
      <rects>
        <_>
          16 7 2 7 -1.</_>
        <_>
          17 7 1 7 2.</_></rects>
      <tilted>0</tilted></_>
    <_>
      <rects>
        <_>
          16 14 3 5 -1.</_>
        <_>
          17 14 1 5 3.</_></rects>
      <tilted>0</tilted></_>
    <_>
      <rects>
        <_>
          16 16 8 4 -1.</_>
        <_>
          20 16 4 4 2.</_></rects>
      <tilted>0</tilted></_>
    <_>
      <rects>
        <_>
          18 6 3 10 -1.</_>
        <_>
          19 6 1 10 3.</_></rects>
      <tilted>0</tilted></_>
    <_>
      <rects>
        <_>
          18 8 6 13 -1.</_>
        <_>
          21 8 3 13 2.</_></rects>
      <tilted>0</tilted></_>
    <_>
      <rects>
        <_>
          18 11 6 10 -1.</_>
        <_>
          21 11 3 10 2.</_></rects>
      <tilted>0</tilted></_>
    <_>
      <rects>
        <_>
          18 13 6 6 -1.</_>
        <_>
          21 13 3 6 2.</_></rects>
      <tilted>0</tilted></_>
    <_>
      <rects>
        <_>
          19 9 3 15 -1.</_>
        <_>
          20 9 1 15 3.</_></rects>
      <tilted>0</tilted></_>
    <_>
      <rects>
        <_>
          19 10 2 10 -1.</_>
        <_>
          19 10 1 5 2.</_>
        <_>
          20 15 1 5 2.</_></rects>
      <tilted>0</tilted></_>
    <_>
      <rects>
        <_>
          20 1 4 21 -1.</_>
        <_>
          22 1 2 21 2.</_></rects>
      <tilted>0</tilted></_>
    <_>
      <rects>
        <_>
          20 5 2 12 -1.</_>
        <_>
          21 5 1 12 2.</_></rects>
      <tilted>0</tilted></_>
    <_>
      <rects>
        <_>
          20 13 4 7 -1.</_>
        <_>
          22 13 2 7 2.</_></rects>
      <tilted>0</tilted></_>
    <_>
      <rects>
        <_>
          21 6 3 6 -1.</_>
        <_>
          21 8 3 2 3.</_></rects>
      <tilted>0</tilted></_>
    <_>
      <rects>
        <_>
          22 8 2 2 -1.</_>
        <_>
          22 9 2 1 2.</_></rects>
      <tilted>0</tilted></_>
    <_>
      <rects>
        <_>
          22 8 2 3 -1.</_>
        <_>
          22 9 2 1 3.</_></rects>
      <tilted>0</tilted></_></features></cascade>
</opencv_storage>
