<?xml version="1.0"?>
<opencv_storage>
<stage13>
  <maxWeakCount>6</maxWeakCount>
  <stageThreshold>-2.1108665466308594e+00</stageThreshold>
  <weakClassifiers>
    <_>
      <internalNodes>
        0 -1 1078 -3.0800700187683105e-01</internalNodes>
      <leafValues>
        4.5454546809196472e-01 -9.1730767488479614e-01</leafValues></_>
    <_>
      <internalNodes>
        0 -1 119895 1.3000600738450885e-03</internalNodes>
      <leafValues>
        -7.6396554708480835e-01 7.8146055340766907e-02</leafValues></_>
    <_>
      <internalNodes>
        0 -1 71508 6.3795089721679688e-02</internalNodes>
      <leafValues>
        -5.5521231889724731e-01 4.2252913117408752e-01</leafValues></_>
    <_>
      <internalNodes>
        0 -1 154207 -5.6423246860504150e-02</internalNodes>
      <leafValues>
        5.3482067584991455e-01 -5.0606966018676758e-01</leafValues></_>
    <_>
      <internalNodes>
        0 -1 128012 1.7993882065638900e-03</internalNodes>
      <leafValues>
        3.0487924814224243e-01 -7.8677469491958618e-01</leafValues></_>
    <_>
      <internalNodes>
        0 -1 25568 -1.3838902115821838e-02</internalNodes>
      <leafValues>
        -6.5450680255889893e-01 3.7757295370101929e-01</leafValues></_></weakClassifiers></stage13>
</opencv_storage>
