<?xml version="1.0"?>
<opencv_storage>
<stage9>
  <maxWeakCount>5</maxWeakCount>
  <stageThreshold>-2.0423557758331299e+00</stageThreshold>
  <weakClassifiers>
    <_>
      <internalNodes>
        0 -1 147930 7.6738357543945313e-02</internalNodes>
      <leafValues>
        -9.1554701328277588e-01 5.5555558204650879e-01</leafValues></_>
    <_>
      <internalNodes>
        0 -1 137662 9.3649013433605433e-04</internalNodes>
      <leafValues>
        -9.0190470218658447e-01 -1.2200193852186203e-01</leafValues></_>
    <_>
      <internalNodes>
        0 -1 126631 -4.1836348827928305e-04</internalNodes>
      <leafValues>
        3.0077356100082397e-01 -6.5943169593811035e-01</leafValues></_>
    <_>
      <internalNodes>
        0 -1 64570 2.5108911097049713e-02</internalNodes>
      <leafValues>
        2.4236562848091125e-01 -8.5487163066864014e-01</leafValues></_>
    <_>
      <internalNodes>
        0 -1 32877 7.9112350940704346e-03</internalNodes>
      <leafValues>
        1.9216200709342957e-01 -1.</leafValues></_></weakClassifiers></stage9>
</opencv_storage>
