<?xml version="1.0"?>
<opencv_storage>
<stage14>
  <maxWeakCount>7</maxWeakCount>
  <stageThreshold>-1.7304750680923462e+00</stageThreshold>
  <weakClassifiers>
    <_>
      <internalNodes>
        0 -1 33207 -1.7512533813714981e-03</internalNodes>
      <leafValues>
        -2.0496894419193268e-01 -8.3536583185195923e-01</leafValues></_>
    <_>
      <internalNodes>
        0 -1 51329 -5.3035747259855270e-04</internalNodes>
      <leafValues>
        1.0291875898838043e-01 -6.8172365427017212e-01</leafValues></_>
    <_>
      <internalNodes>
        0 -1 106824 -5.4398577049141750e-05</internalNodes>
      <leafValues>
        2.2438308596611023e-01 -6.6464054584503174e-01</leafValues></_>
    <_>
      <internalNodes>
        0 -1 66868 7.3800317477434874e-04</internalNodes>
      <leafValues>
        -7.0407146215438843e-01 2.2771857678890228e-01</leafValues></_>
    <_>
      <internalNodes>
        0 -1 113145 -6.3092363998293877e-03</internalNodes>
      <leafValues>
        -9.0259289741516113e-01 1.8847055733203888e-01</leafValues></_>
    <_>
      <internalNodes>
        0 -1 84922 1.1884322389960289e-02</internalNodes>
      <leafValues>
        1.5380063652992249e-01 -8.5970425605773926e-01</leafValues></_>
    <_>
      <internalNodes>
        0 -1 45363 -1.4112710952758789e-02</internalNodes>
      <leafValues>
        1.8265835940837860e-01 -7.9708671569824219e-01</leafValues></_></weakClassifiers></stage14>
</opencv_storage>
