<?xml version="1.0"?>
<opencv_storage>
<stage4>
  <maxWeakCount>6</maxWeakCount>
  <stageThreshold>-2.1270446777343750e+00</stageThreshold>
  <weakClassifiers>
    <_>
      <internalNodes>
        0 -1 2078 1.7218624055385590e-01</internalNodes>
      <leafValues>
        -8.4097290039062500e-01 5.7894736528396606e-01</leafValues></_>
    <_>
      <internalNodes>
        0 -1 37435 -1.0413245856761932e-01</internalNodes>
      <leafValues>
        5.9506630897521973e-01 -6.2116873264312744e-01</leafValues></_>
    <_>
      <internalNodes>
        0 -1 58056 -2.6860723271965981e-02</internalNodes>
      <leafValues>
        3.3908078074455261e-01 -7.7789580821990967e-01</leafValues></_>
    <_>
      <internalNodes>
        0 -1 128534 1.6531439032405615e-03</internalNodes>
      <leafValues>
        2.7375176548957825e-01 -8.9349186420440674e-01</leafValues></_>
    <_>
      <internalNodes>
        0 -1 153876 -4.5414887368679047e-02</internalNodes>
      <leafValues>
        5.9912961721420288e-01 -4.5615705847740173e-01</leafValues></_>
    <_>
      <internalNodes>
        0 -1 81535 1.4173914678394794e-03</internalNodes>
      <leafValues>
        2.9539799690246582e-01 -8.7841951847076416e-01</leafValues></_></weakClassifiers></stage4>
</opencv_storage>
