<?xml version="1.0"?>
<opencv_storage>
<stage15>
  <maxWeakCount>8</maxWeakCount>
  <stageThreshold>-1.8665987253189087e+00</stageThreshold>
  <weakClassifiers>
    <_>
      <internalNodes>
        0 -1 146187 3.8481380324810743e-03</internalNodes>
      <leafValues>
        -8.6289447546005249e-01 -2.7433627843856812e-01</leafValues></_>
    <_>
      <internalNodes>
        0 -1 117759 -3.2648658379912376e-03</internalNodes>
      <leafValues>
        4.9335312098264694e-02 -7.1098291873931885e-01</leafValues></_>
    <_>
      <internalNodes>
        0 -1 59901 -7.3123633861541748e-02</internalNodes>
      <leafValues>
        4.7866767644882202e-01 -3.2460558414459229e-01</leafValues></_>
    <_>
      <internalNodes>
        0 -1 56227 -3.5394933074712753e-03</internalNodes>
      <leafValues>
        3.1449383497238159e-01 -5.2106583118438721e-01</leafValues></_>
    <_>
      <internalNodes>
        0 -1 107396 1.1974354088306427e-01</internalNodes>
      <leafValues>
        -3.2137414813041687e-01 5.4581379890441895e-01</leafValues></_>
    <_>
      <internalNodes>
        0 -1 124694 5.6812155526131392e-04</internalNodes>
      <leafValues>
        -3.8119927048683167e-01 4.6719324588775635e-01</leafValues></_>
    <_>
      <internalNodes>
        0 -1 19630 -1.6025018412619829e-03</internalNodes>
      <leafValues>
        -7.8087842464447021e-01 2.4167159199714661e-01</leafValues></_>
    <_>
      <internalNodes>
        0 -1 89485 9.3662608414888382e-03</internalNodes>
      <leafValues>
        1.6545940935611725e-01 -9.4766783714294434e-01</leafValues></_></weakClassifiers></stage15>
</opencv_storage>
