<?xml version="1.0"?>
<opencv_storage>
<stage11>
  <maxWeakCount>7</maxWeakCount>
  <stageThreshold>-1.5460036993026733e+00</stageThreshold>
  <weakClassifiers>
    <_>
      <internalNodes>
        0 -1 578272 4.9619427882134914e-03</internalNodes>
      <leafValues>
        -8.5185188055038452e-01 1.5966387093067169e-01</leafValues></_>
    <_>
      <internalNodes>
        0 -1 264404 2.6279259473085403e-03</internalNodes>
      <leafValues>
        -5.7623642683029175e-01 3.4025138616561890e-01</leafValues></_>
    <_>
      <internalNodes>
        0 -1 372050 2.4106035009026527e-02</internalNodes>
      <leafValues>
        -3.6600351333618164e-01 6.1510139703750610e-01</leafValues></_>
    <_>
      <internalNodes>
        0 -1 428664 -1.1844304390251637e-03</internalNodes>
      <leafValues>
        3.3255854249000549e-01 -6.1867356300354004e-01</leafValues></_>
    <_>
      <internalNodes>
        0 -1 635978 1.4443226391449571e-03</internalNodes>
      <leafValues>
        2.5072532892227173e-01 -7.4842447042465210e-01</leafValues></_>
    <_>
      <internalNodes>
        0 -1 722886 -4.1309196501970291e-02</internalNodes>
      <leafValues>
        5.0472384691238403e-01 -4.8317489027976990e-01</leafValues></_>
    <_>
      <internalNodes>
        0 -1 444025 5.8042677119374275e-03</internalNodes>
      <leafValues>
        2.6850572228431702e-01 -8.3991962671279907e-01</leafValues></_></weakClassifiers></stage11>
</opencv_storage>
