<?xml version="1.0"?>
<opencv_storage>
<stage14>
  <maxWeakCount>5</maxWeakCount>
  <stageThreshold>-1.6773999929428101e+00</stageThreshold>
  <weakClassifiers>
    <_>
      <internalNodes>
        0 -1 720155 -7.2794230654835701e-03</internalNodes>
      <leafValues>
        3.0555555224418640e-01 -8.1733459234237671e-01</leafValues></_>
    <_>
      <internalNodes>
        0 -1 571624 4.6439552679657936e-03</internalNodes>
      <leafValues>
        -7.1284145116806030e-01 2.3532390594482422e-01</leafValues></_>
    <_>
      <internalNodes>
        0 -1 479130 6.6569529008120298e-04</internalNodes>
      <leafValues>
        -5.7421612739562988e-01 3.3966076374053955e-01</leafValues></_>
    <_>
      <internalNodes>
        0 -1 86726 1.4486243017017841e-03</internalNodes>
      <leafValues>
        2.3287221789360046e-01 -8.8413918018341064e-01</leafValues></_>
    <_>
      <internalNodes>
        0 -1 530931 -2.4195206351578236e-03</internalNodes>
      <leafValues>
        3.0535843968391418e-01 -7.1975702047348022e-01</leafValues></_></weakClassifiers></stage14>
</opencv_storage>
