<?xml version="1.0"?>
<opencv_storage>
<stage8>
  <maxWeakCount>7</maxWeakCount>
  <stageThreshold>-2.0093684196472168e+00</stageThreshold>
  <weakClassifiers>
    <_>
      <internalNodes>
        0 -1 5011 -1.5792580321431160e-02</internalNodes>
      <leafValues>
        2.8000000119209290e-01 -8.1869161128997803e-01</leafValues></_>
    <_>
      <internalNodes>
        0 -1 93809 -1.9773994572460651e-03</internalNodes>
      <leafValues>
        1.6787490248680115e-01 -8.7132990360260010e-01</leafValues></_>
    <_>
      <internalNodes>
        0 -1 68923 -1.5457704430446029e-03</internalNodes>
      <leafValues>
        3.8791564106941223e-01 -6.1456435918807983e-01</leafValues></_>
    <_>
      <internalNodes>
        0 -1 73918 5.6792749091982841e-03</internalNodes>
      <leafValues>
        1.8515405058860779e-01 -9.7230565547943115e-01</leafValues></_>
    <_>
      <internalNodes>
        0 -1 154612 -2.8324279934167862e-02</internalNodes>
      <leafValues>
        5.7776230573654175e-01 -3.7902399897575378e-01</leafValues></_>
    <_>
      <internalNodes>
        0 -1 160443 2.4891949724406004e-03</internalNodes>
      <leafValues>
        2.8540259599685669e-01 -7.3414057493209839e-01</leafValues></_>
    <_>
      <internalNodes>
        0 -1 133691 6.5153473988175392e-03</internalNodes>
      <leafValues>
        2.2074797749519348e-01 -9.1308420896530151e-01</leafValues></_></weakClassifiers></stage8>
</opencv_storage>
