<?xml version="1.0"?>
<opencv_storage>
<stage10>
  <maxWeakCount>6</maxWeakCount>
  <stageThreshold>-1.3829478025436401e+00</stageThreshold>
  <weakClassifiers>
    <_>
      <internalNodes>
        0 -1 650179 4.9472823739051819e-03</internalNodes>
      <leafValues>
        -8.4509801864624023e-01 5.6000001728534698e-02</leafValues></_>
    <_>
      <internalNodes>
        0 -1 41859 2.6191487908363342e-02</internalNodes>
      <leafValues>
        -7.2848486900329590e-01 2.2989679872989655e-01</leafValues></_>
    <_>
      <internalNodes>
        0 -1 540255 -8.1291946116834879e-04</internalNodes>
      <leafValues>
        2.4560286104679108e-01 -7.1808677911758423e-01</leafValues></_>
    <_>
      <internalNodes>
        0 -1 757041 -2.0112203492317349e-04</internalNodes>
      <leafValues>
        -9.1955208778381348e-01 1.6637702286243439e-01</leafValues></_>
    <_>
      <internalNodes>
        0 -1 757041 1.8377974629402161e-04</internalNodes>
      <leafValues>
        2.7530404925346375e-01 -7.8586459159851074e-01</leafValues></_>
    <_>
      <internalNodes>
        0 -1 518573 2.0172987133264542e-02</internalNodes>
      <leafValues>
        -3.6910140514373779e-01 6.8153959512710571e-01</leafValues></_></weakClassifiers></stage10>
</opencv_storage>
