<?xml version="1.0"?>
<opencv_storage>
<stage4>
  <maxWeakCount>5</maxWeakCount>
  <stageThreshold>-2.5385303497314453e+00</stageThreshold>
  <weakClassifiers>
    <_>
      <internalNodes>
        0 -1 106436 1.0520230978727341e-01</internalNodes>
      <leafValues>
        -9.2100191116333008e-01 5.3846156597137451e-01</leafValues></_>
    <_>
      <internalNodes>
        0 -1 12205 5.6397654116153717e-02</internalNodes>
      <leafValues>
        -8.1660026311874390e-01 1.7571562528610229e-01</leafValues></_>
    <_>
      <internalNodes>
        0 -1 126629 -3.7172110751271248e-05</internalNodes>
      <leafValues>
        3.2378074526786804e-01 -7.8933691978454590e-01</leafValues></_>
    <_>
      <internalNodes>
        0 -1 78637 -4.3454776459839195e-05</internalNodes>
      <leafValues>
        3.8757351040840149e-01 -6.1855137348175049e-01</leafValues></_>
    <_>
      <internalNodes>
        0 -1 32552 2.9611848294734955e-03</internalNodes>
      <leafValues>
        -5.0303393602371216e-01 6.0696011781692505e-01</leafValues></_></weakClassifiers></stage4>
</opencv_storage>
