<?xml version="1.0"?>
<opencv_storage>
<stage12>
  <maxWeakCount>5</maxWeakCount>
  <stageThreshold>-1.6611324548721313e+00</stageThreshold>
  <weakClassifiers>
    <_>
      <internalNodes>
        0 -1 656427 5.5460985749959946e-03</internalNodes>
      <leafValues>
        -8.3732056617736816e-01 2.0000000298023224e-01</leafValues></_>
    <_>
      <internalNodes>
        0 -1 334343 2.6433994062244892e-03</internalNodes>
      <leafValues>
        -6.2440139055252075e-01 2.3982906341552734e-01</leafValues></_>
    <_>
      <internalNodes>
        0 -1 476837 -1.7271749675273895e-02</internalNodes>
      <leafValues>
        -8.2175588607788086e-01 2.0770217478275299e-01</leafValues></_>
    <_>
      <internalNodes>
        0 -1 247192 -1.2083895504474640e-02</internalNodes>
      <leafValues>
        -7.9682880640029907e-01 1.9464211165904999e-01</leafValues></_>
    <_>
      <internalNodes>
        0 -1 139214 1.3917684555053711e-04</internalNodes>
      <leafValues>
        -4.6140599250793457e-01 3.8971620798110962e-01</leafValues></_></weakClassifiers></stage12>
</opencv_storage>
