<?xml version="1.0"?>
<opencv_storage>
<stage6>
  <maxWeakCount>6</maxWeakCount>
  <stageThreshold>-1.9566416740417480e+00</stageThreshold>
  <weakClassifiers>
    <_>
      <internalNodes>
        0 -1 656764 2.8280885890126228e-03</internalNodes>
      <leafValues>
        -8.6561262607574463e-01 1.5789473056793213e-01</leafValues></_>
    <_>
      <internalNodes>
        0 -1 167518 -7.0867784321308136e-02</internalNodes>
      <leafValues>
        4.8901531100273132e-01 -6.4817398786544800e-01</leafValues></_>
    <_>
      <internalNodes>
        0 -1 452343 7.5744107365608215e-02</internalNodes>
      <leafValues>
        -4.0872627496719360e-01 6.7726826667785645e-01</leafValues></_>
    <_>
      <internalNodes>
        0 -1 331535 8.1533321645110846e-04</internalNodes>
      <leafValues>
        -6.7215812206268311e-01 3.9267623424530029e-01</leafValues></_>
    <_>
      <internalNodes>
        0 -1 499501 -1.1350648492225446e-05</internalNodes>
      <leafValues>
        3.6970004439353943e-01 -6.6077268123626709e-01</leafValues></_>
    <_>
      <internalNodes>
        0 -1 540163 1.4212306123226881e-03</internalNodes>
      <leafValues>
        2.7529472112655640e-01 -9.4534611701965332e-01</leafValues></_></weakClassifiers></stage6>
</opencv_storage>
