<?xml version="1.0"?>
<opencv_storage>
<stage8>
  <maxWeakCount>5</maxWeakCount>
  <stageThreshold>-1.5057210922241211e+00</stageThreshold>
  <weakClassifiers>
    <_>
      <internalNodes>
        0 -1 89672 -1.1459607630968094e-01</internalNodes>
      <leafValues>
        5.7142859697341919e-01 -8.1450873613357544e-01</leafValues></_>
    <_>
      <internalNodes>
        0 -1 8163 -6.8895583972334862e-03</internalNodes>
      <leafValues>
        4.8185232281684875e-01 -5.8354634046554565e-01</leafValues></_>
    <_>
      <internalNodes>
        0 -1 65234 -2.0829491317272186e-02</internalNodes>
      <leafValues>
        -9.0137529373168945e-01 2.8460812568664551e-01</leafValues></_>
    <_>
      <internalNodes>
        0 -1 132755 -3.1277845846489072e-04</internalNodes>
      <leafValues>
        5.5563998222351074e-01 -4.3377536535263062e-01</leafValues></_>
    <_>
      <internalNodes>
        0 -1 69062 2.0989848300814629e-02</internalNodes>
      <leafValues>
        2.3806928098201752e-01 -9.6099263429641724e-01</leafValues></_></weakClassifiers></stage8>
</opencv_storage>
