<?xml version="1.0"?>
<opencv_storage>
<stage6>
  <maxWeakCount>5</maxWeakCount>
  <stageThreshold>-2.1317541599273682e+00</stageThreshold>
  <weakClassifiers>
    <_>
      <internalNodes>
        0 -1 113089 -3.1124143861234188e-03</internalNodes>
      <leafValues>
        8.8888891041278839e-02 -9.0259069204330444e-01</leafValues></_>
    <_>
      <internalNodes>
        0 -1 108029 -4.7175773943308741e-05</internalNodes>
      <leafValues>
        1.7576226592063904e-01 -8.3698314428329468e-01</leafValues></_>
    <_>
      <internalNodes>
        0 -1 68923 -1.5411782078444958e-03</internalNodes>
      <leafValues>
        4.9624338746070862e-01 -5.8561646938323975e-01</leafValues></_>
    <_>
      <internalNodes>
        0 -1 73411 4.1064061224460602e-03</internalNodes>
      <leafValues>
        -5.2464401721954346e-01 6.1536014080047607e-01</leafValues></_>
    <_>
      <internalNodes>
        0 -1 138458 5.1590974908322096e-04</internalNodes>
      <leafValues>
        -4.2192402482032776e-01 6.4776426553726196e-01</leafValues></_></weakClassifiers></stage6>
</opencv_storage>
