<?xml version="1.0"?>
<opencv_storage>
<stage2>
  <maxWeakCount>6</maxWeakCount>
  <stageThreshold>-1.7661343812942505e+00</stageThreshold>
  <weakClassifiers>
    <_>
      <internalNodes>
        0 -1 9556 4.6242818236351013e-02</internalNodes>
      <leafValues>
        -8.9349114894866943e-01 3.8931298255920410e-01</leafValues></_>
    <_>
      <internalNodes>
        0 -1 44840 5.4829627275466919e-02</internalNodes>
      <leafValues>
        -7.1164685487747192e-01 4.5682600140571594e-01</leafValues></_>
    <_>
      <internalNodes>
        0 -1 50995 5.2298121154308319e-02</internalNodes>
      <leafValues>
        -4.8135882616043091e-01 6.6104477643966675e-01</leafValues></_>
    <_>
      <internalNodes>
        0 -1 25225 -8.3187550306320190e-02</internalNodes>
      <leafValues>
        8.6652749776840210e-01 -3.3806028962135315e-01</leafValues></_>
    <_>
      <internalNodes>
        0 -1 131245 1.4188213972374797e-03</internalNodes>
      <leafValues>
        3.8333746790885925e-01 -8.4799641370773315e-01</leafValues></_>
    <_>
      <internalNodes>
        0 -1 97186 1.1003820691257715e-03</internalNodes>
      <leafValues>
        2.7508521080017090e-01 -9.4378829002380371e-01</leafValues></_></weakClassifiers></stage2>
</opencv_storage>
