<?xml version="1.0"?>
<opencv_storage>
<stage4>
  <maxWeakCount>5</maxWeakCount>
  <stageThreshold>-1.8009309768676758e+00</stageThreshold>
  <weakClassifiers>
    <_>
      <internalNodes>
        0 -1 159108 -7.4690543115139008e-03</internalNodes>
      <leafValues>
        3.7500000000000000e-01 -9.2270529270172119e-01</leafValues></_>
    <_>
      <internalNodes>
        0 -1 38669 1.1949779838323593e-01</internalNodes>
      <leafValues>
        -7.7370303869247437e-01 2.0924641191959381e-01</leafValues></_>
    <_>
      <internalNodes>
        0 -1 155427 -1.6116531193256378e-01</internalNodes>
      <leafValues>
        8.2459306716918945e-01 -5.0357216596603394e-01</leafValues></_>
    <_>
      <internalNodes>
        0 -1 106600 -6.7591443657875061e-03</internalNodes>
      <leafValues>
        -9.8175084590911865e-01 3.4111160039901733e-01</leafValues></_>
    <_>
      <internalNodes>
        0 -1 90734 5.9523973613977432e-03</internalNodes>
      <leafValues>
        2.1530811488628387e-01 -9.2501151561737061e-01</leafValues></_></weakClassifiers></stage4>
</opencv_storage>
