<?xml version="1.0"?>
<opencv_storage>
<stage2>
  <maxWeakCount>6</maxWeakCount>
  <stageThreshold>-1.6854932308197021e+00</stageThreshold>
  <weakClassifiers>
    <_>
      <internalNodes>
        0 -1 79682 1.9355986267328262e-02</internalNodes>
      <leafValues>
        -8.3844012022018433e-01 7.0588237047195435e-01</leafValues></_>
    <_>
      <internalNodes>
        0 -1 503796 -2.2049592807888985e-03</internalNodes>
      <leafValues>
        1.3346725702285767e-01 -8.8566565513610840e-01</leafValues></_>
    <_>
      <internalNodes>
        0 -1 103320 1.2463126331567764e-03</internalNodes>
      <leafValues>
        -6.3673245906829834e-01 4.0090787410736084e-01</leafValues></_>
    <_>
      <internalNodes>
        0 -1 711484 2.4355733767151833e-03</internalNodes>
      <leafValues>
        -5.4117542505264282e-01 6.2493342161178589e-01</leafValues></_>
    <_>
      <internalNodes>
        0 -1 55864 -7.6439931988716125e-02</internalNodes>
      <leafValues>
        7.8357619047164917e-01 -3.3849146962165833e-01</leafValues></_>
    <_>
      <internalNodes>
        0 -1 653689 3.1261290423572063e-03</internalNodes>
      <leafValues>
        -5.8618867397308350e-01 5.9239071607589722e-01</leafValues></_></weakClassifiers></stage2>
</opencv_storage>
