<?xml version="1.0"?>
<opencv_storage>
<stage5>
  <maxWeakCount>6</maxWeakCount>
  <stageThreshold>-1.7616949081420898e+00</stageThreshold>
  <weakClassifiers>
    <_>
      <internalNodes>
        0 -1 674526 -3.5800426267087460e-03</internalNodes>
      <leafValues>
        1.7741934955120087e-01 -8.5896182060241699e-01</leafValues></_>
    <_>
      <internalNodes>
        0 -1 606389 -2.1949615329504013e-03</internalNodes>
      <leafValues>
        4.7929751873016357e-01 -6.0481292009353638e-01</leafValues></_>
    <_>
      <internalNodes>
        0 -1 175903 1.6179716587066650e-01</internalNodes>
      <leafValues>
        -5.4649358987808228e-01 4.8331230878829956e-01</leafValues></_>
    <_>
      <internalNodes>
        0 -1 306011 2.0644929463742301e-05</internalNodes>
      <leafValues>
        -6.2326908111572266e-01 4.8561570048332214e-01</leafValues></_>
    <_>
      <internalNodes>
        0 -1 273792 1.6705360263586044e-02</internalNodes>
      <leafValues>
        2.4185511469841003e-01 -9.6120738983154297e-01</leafValues></_>
    <_>
      <internalNodes>
        0 -1 107356 4.7883274964988232e-03</internalNodes>
      <leafValues>
        -3.9981850981712341e-01 6.7900961637496948e-01</leafValues></_></weakClassifiers></stage5>
</opencv_storage>
