<?xml version="1.0"?>
<opencv_storage>
<stage15>
  <maxWeakCount>7</maxWeakCount>
  <stageThreshold>-1.6409090757369995e+00</stageThreshold>
  <weakClassifiers>
    <_>
      <internalNodes>
        0 -1 91418 1.0963346809148788e-02</internalNodes>
      <leafValues>
        -8.0639266967773438e-01 5.6000000238418579e-01</leafValues></_>
    <_>
      <internalNodes>
        0 -1 307595 7.2481604292988777e-03</internalNodes>
      <leafValues>
        -6.5900856256484985e-01 2.1546614170074463e-01</leafValues></_>
    <_>
      <internalNodes>
        0 -1 249511 5.4893048945814371e-04</internalNodes>
      <leafValues>
        -5.6819671392440796e-01 3.3465427160263062e-01</leafValues></_>
    <_>
      <internalNodes>
        0 -1 543760 2.8681857656920329e-05</internalNodes>
      <leafValues>
        -4.1733759641647339e-01 4.7142651677131653e-01</leafValues></_>
    <_>
      <internalNodes>
        0 -1 479895 9.9543388932943344e-03</internalNodes>
      <leafValues>
        2.2019574046134949e-01 -8.9772731065750122e-01</leafValues></_>
    <_>
      <internalNodes>
        0 -1 347431 -3.2626630854792893e-06</internalNodes>
      <leafValues>
        3.3560329675674438e-01 -6.7672216892242432e-01</leafValues></_>
    <_>
      <internalNodes>
        0 -1 601091 -5.2941078320145607e-04</internalNodes>
      <leafValues>
        3.9747846126556396e-01 -5.1077276468276978e-01</leafValues></_></weakClassifiers></stage15>
</opencv_storage>
