<?xml version="1.0"?>
<opencv_storage>
<stage0>
  <maxWeakCount>5</maxWeakCount>
  <stageThreshold>-1.7118800878524780e+00</stageThreshold>
  <weakClassifiers>
    <_>
      <internalNodes>
        0 -1 5946 3.8555599749088287e-02</internalNodes>
      <leafValues>
        -8.8781434297561646e-01 5.6756758689880371e-01</leafValues></_>
    <_>
      <internalNodes>
        0 -1 137475 1.1357163079082966e-02</internalNodes>
      <leafValues>
        -8.2300961017608643e-01 3.3082109689712524e-01</leafValues></_>
    <_>
      <internalNodes>
        0 -1 68996 6.7284433171153069e-03</internalNodes>
      <leafValues>
        -7.3579704761505127e-01 3.8841769099235535e-01</leafValues></_>
    <_>
      <internalNodes>
        0 -1 6549 -3.2471166923642159e-03</internalNodes>
      <leafValues>
        -8.9297789335250854e-01 3.3362388610839844e-01</leafValues></_>
    <_>
      <internalNodes>
        0 -1 156815 -1.4421761734411120e-03</internalNodes>
      <leafValues>
        5.0350409746170044e-01 -5.4726344347000122e-01</leafValues></_></weakClassifiers></stage0>
</opencv_storage>
