<?xml version="1.0"?>
<opencv_storage>
<stage10>
  <maxWeakCount>6</maxWeakCount>
  <stageThreshold>-1.9188601970672607e+00</stageThreshold>
  <weakClassifiers>
    <_>
      <internalNodes>
        0 -1 158699 2.0158018916845322e-02</internalNodes>
      <leafValues>
        -8.1936687231063843e-01 3.5211268067359924e-01</leafValues></_>
    <_>
      <internalNodes>
        0 -1 111555 -2.9787314124405384e-03</internalNodes>
      <leafValues>
        4.6784013509750366e-02 -8.2159441709518433e-01</leafValues></_>
    <_>
      <internalNodes>
        0 -1 93293 8.6095472797751427e-03</internalNodes>
      <leafValues>
        1.4670704305171967e-01 -9.3716073036193848e-01</leafValues></_>
    <_>
      <internalNodes>
        0 -1 97834 -4.8185989260673523e-02</internalNodes>
      <leafValues>
        5.3396916389465332e-01 -3.9783465862274170e-01</leafValues></_>
    <_>
      <internalNodes>
        0 -1 58888 2.0117945969104767e-03</internalNodes>
      <leafValues>
        -3.9733892679214478e-01 5.7275331020355225e-01</leafValues></_>
    <_>
      <internalNodes>
        0 -1 124587 -4.9542011693120003e-03</internalNodes>
      <leafValues>
        4.4578912854194641e-01 -4.9781081080436707e-01</leafValues></_></weakClassifiers></stage10>
</opencv_storage>
