<?xml version="1.0"?>
<opencv_storage>
<stage1>
  <maxWeakCount>5</maxWeakCount>
  <stageThreshold>-1.5029184818267822e+00</stageThreshold>
  <weakClassifiers>
    <_>
      <internalNodes>
        0 -1 25032 3.9960250258445740e-02</internalNodes>
      <leafValues>
        -8.7047618627548218e-01 6.2105262279510498e-01</leafValues></_>
    <_>
      <internalNodes>
        0 -1 578272 2.0047405268996954e-03</internalNodes>
      <leafValues>
        -7.2048282623291016e-01 4.3595314025878906e-01</leafValues></_>
    <_>
      <internalNodes>
        0 -1 281082 4.0125761181116104e-02</internalNodes>
      <leafValues>
        -4.3102884292602539e-01 7.6628440618515015e-01</leafValues></_>
    <_>
      <internalNodes>
        0 -1 686902 3.7999479100108147e-03</internalNodes>
      <leafValues>
        -8.6173236370086670e-01 4.2882820963859558e-01</leafValues></_>
    <_>
      <internalNodes>
        0 -1 296111 1.2522953562438488e-02</internalNodes>
      <leafValues>
        2.2436580061912537e-01 -1.</leafValues></_></weakClassifiers></stage1>
</opencv_storage>
