<?xml version="1.0"?>
<opencv_storage>
<stage13>
  <maxWeakCount>8</maxWeakCount>
  <stageThreshold>-1.6902019977569580e+00</stageThreshold>
  <weakClassifiers>
    <_>
      <internalNodes>
        0 -1 157337 -1.9986727274954319e-03</internalNodes>
      <leafValues>
        -1.2582781910896301e-01 -8.4104627370834351e-01</leafValues></_>
    <_>
      <internalNodes>
        0 -1 70825 2.3329283576458693e-03</internalNodes>
      <leafValues>
        -7.8455793857574463e-01 1.0022152215242386e-01</leafValues></_>
    <_>
      <internalNodes>
        0 -1 10082 3.5906147211790085e-02</internalNodes>
      <leafValues>
        -3.8767972588539124e-01 5.6924748420715332e-01</leafValues></_>
    <_>
      <internalNodes>
        0 -1 43190 1.0134269483387470e-02</internalNodes>
      <leafValues>
        -7.3782002925872803e-01 2.6889565587043762e-01</leafValues></_>
    <_>
      <internalNodes>
        0 -1 57252 -1.7756810411810875e-03</internalNodes>
      <leafValues>
        -8.9546859264373779e-01 2.0146435499191284e-01</leafValues></_>
    <_>
      <internalNodes>
        0 -1 55613 -3.8034160388633609e-04</internalNodes>
      <leafValues>
        3.6491328477859497e-01 -5.4676675796508789e-01</leafValues></_>
    <_>
      <internalNodes>
        0 -1 3279 2.8748516924679279e-03</internalNodes>
      <leafValues>
        -4.5806699991226196e-01 4.1531738638877869e-01</leafValues></_>
    <_>
      <internalNodes>
        0 -1 161730 -4.8190512461587787e-04</internalNodes>
      <leafValues>
        -8.3946704864501953e-01 2.3737289011478424e-01</leafValues></_></weakClassifiers></stage13>
</opencv_storage>
